{
  "n_estimators": 100,
  "max_depth": 10,
  "n_features": 22,
  "trees": [
    {
      "tree_index": 0,
      "max_depth": 8,
      "node_count": 39,
      "children_left": [
        1,
        2,
        3,
        4,
        -1,
        6,
        7,
        -1,
        -1,
        -1,
        11,
        12,
        -1,
        14,
        -1,
        -1,
        17,
        18,
        -1,
        20,
        -1,
        22,
        -1,
        -1,
        25,
        -1,
        -1,
        -1,
        29,
        -1,
        31,
        32,
        33,
        -1,
        -1,
        -1,
        37,
        -1,
        -1
      ],
      "children_right": [
        28,
        27,
        10,
        5,
        -1,
        9,
        8,
        -1,
        -1,
        -1,
        16,
        13,
        -1,
        15,
        -1,
        -1,
        24,
        19,
        -1,
        21,
        -1,
        23,
        -1,
        -1,
        26,
        -1,
        -1,
        -1,
        30,
        -1,
        36,
        35,
        34,
        -1,
        -1,
        -1,
        38,
        -1,
        -1
      ],
      "feature": [
        12,
        21,
        3,
        3,
        -2,
        0,
        10,
        -2,
        -2,
        -2,
        9,
        19,
        -2,
        19,
        -2,
        -2,
        17,
        20,
        -2,
        10,
        -2,
        3,
        -2,
        -2,
        5,
        -2,
        -2,
        -2,
        18,
        -2,
        12,
        17,
        4,
        -2,
        -2,
        -2,
        16,
        -2,
        -2
      ],
      "threshold": [
        -0.45977257192134857,
        -0.2543599382042885,
        -0.6521800458431244,
        -0.9021438956260681,
        -2.0,
        0.33790646493434906,
        -0.9207276999950409,
        -2.0,
        -2.0,
        -2.0,
        -0.7842358350753784,
        -0.9342010617256165,
        -2.0,
        -0.7542648911476135,
        -2.0,
        -2.0,
        1.065549612045288,
        -0.6035105884075165,
        -2.0,
        -0.5443652123212814,
        -2.0,
        -0.4884106069803238,
        -2.0,
        -2.0,
        -0.39311425387859344,
        -2.0,
        -2.0,
        -2.0,
        -0.9842501580715179,
        -2.0,
        -0.3556535840034485,
        -0.6420137584209442,
        0.25734371691942215,
        -2.0,
        -2.0,
        -2.0,
        -1.0698915421962738,
        -2.0,
        -2.0
      ],
      "value": [
        [
          [
            0.5416310845431254,
            0.45836891545687386
          ]
        ],
        [
          [
            0.8214410024364779,
            0.17855899756352248
          ]
        ],
        [
          [
            0.8796123742079762,
            0.12038762579202383
          ]
        ],
        [
          [
            0.9702427564604543,
            0.029757243539545807
          ]
        ],
        [
          [
            0.0,
            1.0
          ]
        ],
        [
          [
            0.9848966613672496,
            0.015103338632750395
          ]
        ],
        [
          [
            0.8613138686131387,
            0.1386861313868613
          ]
        ],
        [
          [
            1.0,
            0.0
          ]
        ],
        [
          [
            0.0,
            1.0
          ]
        ],
        [
          [
            1.0,
            0.0
          ]
        ],
        [
          [
            0.7972972972972973,
            0.20270270270270266
          ]
        ],
        [
          [
            0.3072916666666667,
            0.6927083333333333
          ]
        ],
        [
          [
            1.0,
            0.0
          ]
        ],
        [
          [
            0.0,
            1.0
          ]
        ],
        [
          [
            0.0,
            1.0
          ]
        ],
        [
          [
            0.0,
            1.0
          ]
        ],
        [
          [
            0.874794069192751,
            0.12520593080724876
          ]
        ],
        [
          [
            0.9332161687170477,
            0.06678383128295255
          ]
        ],
        [
          [
            1.0,
            0.0
          ]
        ],
        [
          [
            0.7951482479784365,
            0.2048517520215633
          ]
        ],
        [
          [
            0.0,
            1.0
          ]
        ],
        [
          [
            0.9394904458598725,
            0.06050955414012738
          ]
        ],
        [
          [
            0.0,
            1.0
          ]
        ],
        [
          [
            1.0,
            0.0
          ]
        ],
        [
          [
            0.0,
            1.0
          ]
        ],
        [
          [
            0.0,
            1.0
          ]
        ],
        [
          [
            0.0,
            1.0
          ]
        ],
        [
          [
            0.0,
            1.0
          ]
        ],
        [
          [
            0.09773605742683604,
            0.9022639425731641
          ]
        ],
        [
          [
            1.0,
            0.0
          ]
        ],
        [
          [
            0.067351598173516,
            0.9326484018264839
          ]
        ],
        [
          [
            0.3410404624277457,
            0.6589595375722543
          ]
        ],
        [
          [
            0.8613138686131387,
            0.1386861313868613
          ]
        ],
        [
          [
            1.0,
            0.0
          ]
        ],
        [
          [
            0.0,
            1.0
          ]
        ],
        [
          [
            0.0,
            1.0
          ]
        ],
        [
          [
            0.0,
            1.0
          ]
        ],
        [
          [
            0.0,
            1.0
          ]
        ],
        [
          [
            0.0,
            1.0
          ]
        ]
      ]
    },
    {
      "tree_index": 1,
      "max_depth": 7,
      "node_count": 31,
      "children_left": [
        1,
        2,
        -1,
        4,
        5,
        -1,
        7,
        8,
        9,
        -1,
        -1,
        -1,
        -1,
        14,
        15,
        -1,
        -1,
        18,
        -1,
        -1,
        21,
        22,
        23,
        24,
        -1,
        -1,
        -1,
        28,
        -1,
        -1,
        -1
      ],
      "children_right": [
        20,
        3,
        -1,
        13,
        6,
        -1,
        12,
        11,
        10,
        -1,
        -1,
        -1,
        -1,
        17,
        16,
        -1,
        -1,
        19,
        -1,
        -1,
        30,
        27,
        26,
        25,
        -1,
        -1,
        -1,
        29,
        -1,
        -1,
        -1
      ],
      "feature": [
        6,
        21,
        -2,
        0,
        15,
        -2,
        20,
        18,
        9,
        -2,
        -2,
        -2,
        -2,
        8,
        21,
        -2,
        -2,
        2,
        -2,
        -2,
        12,
        10,
        19,
        17,
        -2,
        -2,
        -2,
        1,
        -2,
        -2,
        -2
      ],
      "threshold": [
        -0.48655760288238525,
        -1.1063764095306396,
        -2.0,
        -0.5057148486375809,
        0.5113473534584045,
        -2.0,
        -0.2941208481788635,
        -0.11331523396074772,
        -0.8468290269374847,
        -2.0,
        -2.0,
        -2.0,
        -2.0,
        -0.4802822321653366,
        -1.0623477101325989,
        -2.0,
        -2.0,
        0.2238951474428177,
        -2.0,
        -2.0,
        -0.3018084019422531,
        -0.36969204246997833,
        -0.40688061714172363,
        -0.8670246303081512,
        -2.0,
        -2.0,
        -2.0,
        0.1422475203871727,
        -2.0,
        -2.0,
        -2.0
      ],
      "value": [
        [
          [
            0.5086206896551724,
            0.4913793103448271
          ]
        ],
        [
          [
            0.8054607508532428,
            0.19453924914675774
          ]
        ],
        [
          [
            1.0,
            0.0
          ]
        ],
        [
          [
            0.6082474226804124,
            0.3917525773195875
          ]
        ],
        [
          [
            0.8858858858858859,
            0.1141141141141141
          ]
        ],
        [
          [
            0.0,
            1.0
          ]
        ],
        [
          [
            0.9394904458598727,
            0.060509554140127396
          ]
        ],
        [
          [
            0.9688013136288997,
            0.031198686371100157
          ]
        ],
        [
          [
            1.0,
            0.0
          ]
        ],
        [
          [
            1.0,
            0.0
          ]
        ],
        [
          [
            1.0,
            0.0
          ]
        ],
        [
          [
            0.0,
            1.0
          ]
        ],
        [
          [
            0.0,
            1.0
          ]
        ],
        [
          [
            0.2369477911646586,
            0.7630522088353412
          ]
        ],
        [
          [
            0.0,
            1.0
          ]
        ],
        [
          [
            0.0,
            1.0
          ]
        ],
        [
          [
            0.0,
            1.0
          ]
        ],
        [
          [
            0.7564102564102564,
            0.24358974358974358
          ]
        ],
        [
          [
            1.0,
            0.0
          ]
        ],
        [
          [
            0.0,
            1.0
          ]
        ],
        [
          [
            0.18944954128440372,
            0.8105504587155963
          ]
        ],
        [
          [
            0.475258918296893,
            0.5247410817031071
          ]
        ],
        [
          [
            0.2463465553235908,
            0.7536534446764093
          ]
        ],
        [
          [
            0.6082474226804124,
            0.3917525773195876
          ]
        ],
        [
          [
            1.0,
            0.0
          ]
        ],
        [
          [
            0.0,
            1.0
          ]
        ],
        [
          [
            0.0,
            1.0
          ]
        ],
        [
          [
            0.7564102564102564,
            0.24358974358974358
          ]
        ],
        [
          [
            0.0,
            1.0
          ]
        ],
        [
          [
            1.0,
            0.0
          ]
        ],
        [
          [
            0.0,
            1.0
          ]
        ]
      ]
    },
    {
      "tree_index": 2,
      "max_depth": 6,
      "node_count": 33,
      "children_left": [
        1,
        2,
        -1,
        4,
        5,
        -1,
        7,
        -1,
        -1,
        10,
        11,
        12,
        -1,
        -1,
        15,
        -1,
        -1,
        -1,
        19,
        20,
        21,
        22,
        -1,
        -1,
        -1,
        26,
        -1,
        28,
        -1,
        -1,
        31,
        -1,
        -1
      ],
      "children_right": [
        18,
        3,
        -1,
        9,
        6,
        -1,
        8,
        -1,
        -1,
        17,
        14,
        13,
        -1,
        -1,
        16,
        -1,
        -1,
        -1,
        30,
        25,
        24,
        23,
        -1,
        -1,
        -1,
        27,
        -1,
        29,
        -1,
        -1,
        32,
        -1,
        -1
      ],
      "feature": [
        5,
        21,
        -2,
        8,
        14,
        -2,
        1,
        -2,
        -2,
        20,
        21,
        9,
        -2,
        -2,
        21,
        -2,
        -2,
        -2,
        0,
        9,
        16,
        4,
        -2,
        -2,
        -2,
        1,
        -2,
        18,
        -2,
        -2,
        7,
        -2,
        -2
      ],
      "threshold": [
        -0.5239260494709015,
        -1.1398163437843323,
        -2.0,
        -0.7442966401576996,
        -0.4584708958864212,
        -2.0,
        3.578487992286682,
        -2.0,
        -2.0,
        -0.38806168735027313,
        -0.6368145048618317,
        -0.5555299818515778,
        -2.0,
        -2.0,
        -0.5504970848560333,
        -2.0,
        -2.0,
        -2.0,
        1.3571389317512512,
        -0.6349751949310303,
        0.5912207067012787,
        -0.1503640040755272,
        -2.0,
        -2.0,
        -2.0,
        0.471054807305336,
        -2.0,
        -0.7519242614507675,
        -2.0,
        -2.0,
        -0.3210364282131195,
        -2.0,
        -2.0
      ],
      "value": [
        [
          [
            0.5086206896551717,
            0.4913793103448264
          ]
        ],
        [
          [
            0.8334145153433999,
            0.16658548465660006
          ]
        ],
        [
          [
            1.0,
            0.0
          ]
        ],
        [
          [
            0.4631083202511774,
            0.5368916797488227
          ]
        ],
        [
          [
            0.1928104575163399,
            0.8071895424836603
          ]
        ],
        [
          [
            0.0,
            1.0
          ]
        ],
        [
          [
            0.6082474226804124,
            0.3917525773195876
          ]
        ],
        [
          [
            0.0,
            1.0
          ]
        ],
        [
          [
            1.0,
            0.0
          ]
        ],
        [
          [
            0.7129909365558913,
            0.28700906344410876
          ]
        ],
        [
          [
            0.9254901960784313,
            0.07450980392156861
          ]
        ],
        [
          [
            1.0,
            0.0
          ]
        ],
        [
          [
            1.0,
            0.0
          ]
        ],
        [
          [
            1.0,
            0.0
          ]
        ],
        [
          [
            0.7564102564102564,
            0.24358974358974358
          ]
        ],
        [
          [
            0.0,
            1.0
          ]
        ],
        [
          [
            1.0,
            0.0
          ]
        ],
        [
          [
            0.0,
            1.0
          ]
        ],
        [
          [
            0.23876972885471498,
            0.761230271145286
          ]
        ],
        [
          [
            0.1114785073216817,
            0.8885214926783184
          ]
        ],
        [
          [
            0.6082474226804123,
            0.39175257731958757
          ]
        ],
        [
          [
            0.0,
            1.0
          ]
        ],
        [
          [
            0.0,
            1.0
          ]
        ],
        [
          [
            0.0,
            1.0
          ]
        ],
        [
          [
            1.0,
            0.0
          ]
        ],
        [
          [
            0.061362454498179966,
            0.9386375455018203
          ]
        ],
        [
          [
            0.0,
            1.0
          ]
        ],
        [
          [
            0.4701195219123506,
            0.5298804780876494
          ]
        ],
        [
          [
            1.0,
            0.0
          ]
        ],
        [
          [
            0.0,
            1.0
          ]
        ],
        [
          [
            1.0,
            0.0
          ]
        ],
        [
          [
            1.0,
            0.0
          ]
        ],
        [
          [
            1.0,
            0.0
          ]
        ]
      ]
    },
    {
      "tree_index": 3,
      "max_depth": 5,
      "node_count": 31,
      "children_left": [
        1,
        2,
        3,
        4,
        -1,
        6,
        -1,
        -1,
        9,
        -1,
        -1,
        -1,
        13,
        14,
        15,
        -1,
        -1,
        18,
        -1,
        -1,
        21,
        22,
        -1,
        24,
        -1,
        -1,
        27,
        28,
        -1,
        -1,
        -1
      ],
      "children_right": [
        12,
        11,
        8,
        5,
        -1,
        7,
        -1,
        -1,
        10,
        -1,
        -1,
        -1,
        20,
        17,
        16,
        -1,
        -1,
        19,
        -1,
        -1,
        26,
        23,
        -1,
        25,
        -1,
        -1,
        30,
        29,
        -1,
        -1,
        -1
      ],
      "feature": [
        21,
        0,
        0,
        9,
        -2,
        18,
        -2,
        -2,
        1,
        -2,
        -2,
        -2,
        8,
        20,
        18,
        -2,
        -2,
        14,
        -2,
        -2,
        16,
        17,
        -2,
        15,
        -2,
        -2,
        13,
        8,
        -2,
        -2,
        -2
      ],
      "threshold": [
        -0.8349573910236359,
        0.2824122365564108,
        -0.384028647094965,
        -0.8420141935348511,
        -2.0,
        -0.8440336883068085,
        -2.0,
        -2.0,
        -0.4207075238227844,
        -2.0,
        -2.0,
        -2.0,
        -0.6436958909034729,
        -0.48600754141807556,
        -0.6745902597904205,
        -2.0,
        -2.0,
        -0.4931196868419647,
        -2.0,
        -2.0,
        -0.6494861245155334,
        0.4243100620806217,
        -2.0,
        0.7606895267963409,
        -2.0,
        -2.0,
        -0.6662569642066956,
        -0.5701222121715546,
        -2.0,
        -2.0,
        -2.0
      ],
      "value": [
        [
          [
            0.5495342929720575,
            0.4504657070279417
          ]
        ],
        [
          [
            0.9322120285423039,
            0.06778797145769622
          ]
        ],
        [
          [
            0.7268993839835729,
            0.2731006160164271
          ]
        ],
        [
          [
            0.9490616621983914,
            0.05093833780160858
          ]
        ],
        [
          [
            0.0,
            1.0
          ]
        ],
        [
          [
            1.0,
            0.0
          ]
        ],
        [
          [
            1.0,
            0.0
          ]
        ],
        [
          [
            1.0,
            0.0
          ]
        ],
        [
          [
            0.0,
            1.0
          ]
        ],
        [
          [
            0.0,
            1.0
          ]
        ],
        [
          [
            0.0,
            1.0
          ]
        ],
        [
          [
            1.0,
            0.0
          ]
        ],
        [
          [
            0.2776973207820424,
            0.7223026792179583
          ]
        ],
        [
          [
            0.6507352941176469,
            0.3492647058823529
          ]
        ],
        [
          [
            0.9332161687170475,
            0.06678383128295255
          ]
        ],
        [
          [
            0.0,
            1.0
          ]
        ],
        [
          [
            1.0,
            0.0
          ]
        ],
        [
          [
            0.0,
            1.0
          ]
        ],
        [
          [
            0.0,
            1.0
          ]
        ],
        [
          [
            0.0,
            1.0
          ]
        ],
        [
          [
            0.12127440904419329,
            0.878725590955807
          ]
        ],
        [
          [
            0.5086206896551724,
            0.4913793103448275
          ]
        ],
        [
          [
            1.0,
            0.0
          ]
        ],
        [
          [
            0.25652173913043486,
            0.7434782608695654
          ]
        ],
        [
          [
            0.0,
            1.0
          ]
        ],
        [
          [
            1.0,
            0.0
          ]
        ],
        [
          [
            0.03692115143929914,
            0.9630788485607008
          ]
        ],
        [
          [
            0.6082474226804124,
            0.3917525773195876
          ]
        ],
        [
          [
            1.0,
            0.0
          ]
        ],
        [
          [
            0.0,
            1.0
          ]
        ],
        [
          [
            0.0,
            1.0
          ]
        ]
      ]
    },
    {
      "tree_index": 4,
      "max_depth": 6,
      "node_count": 31,
      "children_left": [
        1,
        2,
        -1,
        4,
        5,
        6,
        -1,
        8,
        -1,
        -1,
        -1,
        12,
        13,
        -1,
        15,
        -1,
        -1,
        18,
        -1,
        -1,
        21,
        22,
        -1,
        -1,
        25,
        26,
        -1,
        28,
        -1,
        -1,
        -1
      ],
      "children_right": [
        20,
        3,
        -1,
        11,
        10,
        7,
        -1,
        9,
        -1,
        -1,
        -1,
        17,
        14,
        -1,
        16,
        -1,
        -1,
        19,
        -1,
        -1,
        24,
        23,
        -1,
        -1,
        30,
        27,
        -1,
        29,
        -1,
        -1,
        -1
      ],
      "feature": [
        13,
        21,
        -2,
        8,
        3,
        1,
        -2,
        14,
        -2,
        -2,
        -2,
        17,
        0,
        -2,
        8,
        -2,
        -2,
        14,
        -2,
        -2,
        14,
        5,
        -2,
        -2,
        2,
        1,
        -2,
        8,
        -2,
        -2,
        -2
      ],
      "threshold": [
        -0.5428196489810944,
        -1.1579723954200745,
        -2.0,
        -0.7442966401576996,
        -0.5449158251285553,
        -0.8272445201873779,
        -2.0,
        -0.5519658327102661,
        -2.0,
        -2.0,
        -2.0,
        0.7955602407455444,
        -0.49463097751140594,
        -2.0,
        -0.6614636778831482,
        -2.0,
        -2.0,
        -0.4934605062007904,
        -2.0,
        -2.0,
        -0.48312266170978546,
        -0.4133589416742325,
        -2.0,
        -2.0,
        2.234029173851013,
        0.471054807305336,
        -2.0,
        -0.3381398916244507,
        -2.0,
        -2.0,
        -2.0
      ],
      "value": [
        [
          [
            0.4822888283378748,
            0.5177111716621249
          ]
        ],
        [
          [
            0.8004376367614883,
            0.1995623632385121
          ]
        ],
        [
          [
            1.0,
            0.0
          ]
        ],
        [
          [
            0.6443057722308894,
            0.35569422776911086
          ]
        ],
        [
          [
            0.2565217391304348,
            0.7434782608695653
          ]
        ],
        [
          [
            0.4701195219123505,
            0.5298804780876493
          ]
        ],
        [
          [
            1.0,
            0.0
          ]
        ],
        [
          [
            0.0,
            1.0
          ]
        ],
        [
          [
            0.0,
            1.0
          ]
        ],
        [
          [
            0.0,
            1.0
          ]
        ],
        [
          [
            0.0,
            1.0
          ]
        ],
        [
          [
            0.8613138686131385,
            0.13868613138686128
          ]
        ],
        [
          [
            0.903061224489796,
            0.09693877551020406
          ]
        ],
        [
          [
            1.0,
            0.0
          ]
        ],
        [
          [
            0.0,
            1.0
          ]
        ],
        [
          [
            0.0,
            1.0
          ]
        ],
        [
          [
            0.0,
            1.0
          ]
        ],
        [
          [
            0.0,
            1.0
          ]
        ],
        [
          [
            0.0,
            1.0
          ]
        ],
        [
          [
            0.0,
            1.0
          ]
        ],
        [
          [
            0.13921661160924975,
            0.8607833883907507
          ]
        ],
        [
          [
            0.8232558139534883,
            0.1767441860465116
          ]
        ],
        [
          [
            1.0,
            0.0
          ]
        ],
        [
          [
            0.0,
            1.0
          ]
        ],
        [
          [
            0.06197478991596641,
            0.9380252100840338
          ]
        ],
        [
          [
            0.03197831978319784,
            0.9680216802168021
          ]
        ],
        [
          [
            0.0,
            1.0
          ]
        ],
        [
          [
            0.3410404624277457,
            0.6589595375722543
          ]
        ],
        [
          [
            1.0,
            0.0
          ]
        ],
        [
          [
            0.0,
            1.0
          ]
        ],
        [
          [
            1.0,
            0.0
          ]
        ]
      ]
    },
    {
      "tree_index": 5,
      "max_depth": 7,
      "node_count": 35,
      "children_left": [
        1,
        2,
        3,
        4,
        5,
        6,
        -1,
        -1,
        -1,
        -1,
        11,
        12,
        -1,
        14,
        15,
        -1,
        -1,
        -1,
        19,
        -1,
        21,
        -1,
        -1,
        24,
        25,
        26,
        -1,
        28,
        -1,
        -1,
        -1,
        -1,
        33,
        -1,
        -1
      ],
      "children_right": [
        32,
        23,
        10,
        9,
        8,
        7,
        -1,
        -1,
        -1,
        -1,
        18,
        13,
        -1,
        17,
        16,
        -1,
        -1,
        -1,
        20,
        -1,
        22,
        -1,
        -1,
        31,
        30,
        27,
        -1,
        29,
        -1,
        -1,
        -1,
        -1,
        34,
        -1,
        -1
      ],
      "feature": [
        12,
        0,
        4,
        13,
        9,
        7,
        -2,
        -2,
        -2,
        -2,
        17,
        4,
        -2,
        16,
        5,
        -2,
        -2,
        -2,
        21,
        -2,
        4,
        -2,
        -2,
        21,
        14,
        20,
        -2,
        21,
        -2,
        -2,
        -2,
        -2,
        13,
        -2,
        -2
      ],
      "threshold": [
        -0.2836768627166748,
        0.9309819042682648,
        -0.5580717027187347,
        -0.920894980430603,
        -0.8829405009746552,
        -0.8525722920894623,
        -2.0,
        -2.0,
        -2.0,
        -2.0,
        0.26072369515895844,
        -0.2862665727734566,
        -2.0,
        0.9308696091175079,
        0.6845259070396423,
        -2.0,
        -2.0,
        -2.0,
        -0.28331468254327774,
        -2.0,
        -0.014461427927017212,
        -2.0,
        -2.0,
        0.024234261363744736,
        -0.1707155555486679,
        0.20141378790140152,
        -2.0,
        -0.6289378553628922,
        -2.0,
        -2.0,
        -2.0,
        -2.0,
        -0.2552650347352028,
        -2.0,
        -2.0
      ],
      "value": [
        [
          [
            0.508620689655172,
            0.49137931034482674
          ]
        ],
        [
          [
            0.7247244094488192,
            0.2752755905511812
          ]
        ],
        [
          [
            0.5478816018572259,
            0.4521183981427745
          ]
        ],
        [
          [
            0.14713216957605987,
            0.8528678304239403
          ]
        ],
        [
          [
            0.3831168831168831,
            0.6168831168831168
          ]
        ],
        [
          [
            0.0,
            1.0
          ]
        ],
        [
          [
            0.0,
            1.0
          ]
        ],
        [
          [
            0.0,
            1.0
          ]
        ],
        [
          [
            1.0,
            0.0
          ]
        ],
        [
          [
            0.0,
            1.0
          ]
        ],
        [
          [
            0.6694402420574885,
            0.33055975794251125
          ]
        ],
        [
          [
            0.4496951219512195,
            0.5503048780487806
          ]
        ],
        [
          [
            0.0,
            1.0
          ]
        ],
        [
          [
            0.6599552572706935,
            0.34004474272930646
          ]
        ],
        [
          [
            0.4370370370370371,
            0.562962962962963
          ]
        ],
        [
          [
            0.0,
            1.0
          ]
        ],
        [
          [
            1.0,
            0.0
          ]
        ],
        [
          [
            1.0,
            0.0
          ]
        ],
        [
          [
            0.8858858858858858,
            0.1141141141141141
          ]
        ],
        [
          [
            1.0,
            0.0
          ]
        ],
        [
          [
            0.0,
            1.0
          ]
        ],
        [
          [
            0.0,
            1.0
          ]
        ],
        [
          [
            0.0,
            1.0
          ]
        ],
        [
          [
            0.9345730027548212,
            0.06542699724517906
          ]
        ],
        [
          [
            0.9727598566308245,
            0.027240143369175622
          ]
        ],
        [
          [
            0.9861918604651163,
            0.013808139534883716
          ]
        ],
        [
          [
            1.0,
            0.0
          ]
        ],
        [
          [
            0.9254901960784314,
            0.07450980392156863
          ]
        ],
        [
          [
            0.0,
            1.0
          ]
        ],
        [
          [
            1.0,
            0.0
          ]
        ],
        [
          [
            0.0,
            1.0
          ]
        ],
        [
          [
            0.0,
            1.0
          ]
        ],
        [
          [
            0.0,
            1.0
          ]
        ],
        [
          [
            0.0,
            1.0
          ]
        ],
        [
          [
            0.0,
            1.0
          ]
        ]
      ]
    },
    {
      "tree_index": 6,
      "max_depth": 7,
      "node_count": 27,
      "children_left": [
        1,
        2,
        3,
        4,
        5,
        6,
        -1,
        8,
        -1,
        -1,
        -1,
        -1,
        13,
        -1,
        -1,
        16,
        -1,
        -1,
        19,
        20,
        21,
        -1,
        -1,
        24,
        -1,
        -1,
        -1
      ],
      "children_right": [
        18,
        15,
        12,
        11,
        10,
        7,
        -1,
        9,
        -1,
        -1,
        -1,
        -1,
        14,
        -1,
        -1,
        17,
        -1,
        -1,
        26,
        23,
        22,
        -1,
        -1,
        25,
        -1,
        -1,
        -1
      ],
      "feature": [
        18,
        10,
        10,
        17,
        2,
        6,
        -2,
        10,
        -2,
        -2,
        -2,
        -2,
        18,
        -2,
        -2,
        12,
        -2,
        -2,
        8,
        15,
        1,
        -2,
        -2,
        2,
        -2,
        -2,
        -2
      ],
      "threshold": [
        -0.5785115659236908,
        -0.756301999092102,
        -0.8578453361988068,
        0.2173743136227131,
        1.056740865111351,
        -0.7291021943092346,
        -2.0,
        -0.9980496764183044,
        -2.0,
        -2.0,
        -2.0,
        -2.0,
        -1.3065229058265686,
        -2.0,
        -2.0,
        0.7064150273799896,
        -2.0,
        -2.0,
        -0.5923945009708405,
        0.9537426233291626,
        -0.7920086979866028,
        -2.0,
        -2.0,
        -0.5685111880302429,
        -2.0,
        -2.0,
        -2.0
      ],
      "value": [
        [
          [
            0.4148884578079537,
            0.5851115421920465
          ]
        ],
        [
          [
            0.8203559510567299,
            0.17964404894327027
          ]
        ],
        [
          [
            0.6810073452256035,
            0.31899265477439664
          ]
        ],
        [
          [
            0.8102372034956304,
            0.18976279650436953
          ]
        ],
        [
          [
            0.5379939209726444,
            0.4620060790273556
          ]
        ],
        [
          [
            0.2796208530805687,
            0.7203791469194313
          ]
        ],
        [
          [
            0.0,
            1.0
          ]
        ],
        [
          [
            0.7564102564102564,
            0.24358974358974358
          ]
        ],
        [
          [
            0.0,
            1.0
          ]
        ],
        [
          [
            1.0,
            0.0
          ]
        ],
        [
          [
            1.0,
            0.0
          ]
        ],
        [
          [
            1.0,
            0.0
          ]
        ],
        [
          [
            0.0,
            1.0
          ]
        ],
        [
          [
            0.0,
            1.0
          ]
        ],
        [
          [
            0.0,
            1.0
          ]
        ],
        [
          [
            0.9775147928994082,
            0.022485207100591712
          ]
        ],
        [
          [
            1.0,
            0.0
          ]
        ],
        [
          [
            0.0,
            1.0
          ]
        ],
        [
          [
            0.10146173688736031,
            0.8985382631126396
          ]
        ],
        [
          [
            0.4701195219123505,
            0.5298804780876494
          ]
        ],
        [
          [
            0.19281045751633988,
            0.8071895424836601
          ]
        ],
        [
          [
            1.0,
            0.0
          ]
        ],
        [
          [
            0.0,
            1.0
          ]
        ],
        [
          [
            0.903061224489796,
            0.09693877551020406
          ]
        ],
        [
          [
            0.0,
            1.0
          ]
        ],
        [
          [
            1.0,
            0.0
          ]
        ],
        [
          [
            0.0,
            1.0
          ]
        ]
      ]
    },
    {
      "tree_index": 7,
      "max_depth": 6,
      "node_count": 25,
      "children_left": [
        1,
        2,
        -1,
        4,
        -1,
        -1,
        7,
        8,
        9,
        -1,
        11,
        -1,
        13,
        -1,
        -1,
        16,
        17,
        -1,
        19,
        -1,
        -1,
        22,
        -1,
        -1,
        -1
      ],
      "children_right": [
        6,
        3,
        -1,
        5,
        -1,
        -1,
        24,
        15,
        10,
        -1,
        12,
        -1,
        14,
        -1,
        -1,
        21,
        18,
        -1,
        20,
        -1,
        -1,
        23,
        -1,
        -1,
        -1
      ],
      "feature": [
        4,
        13,
        -2,
        1,
        -2,
        -2,
        8,
        19,
        19,
        -2,
        7,
        -2,
        6,
        -2,
        -2,
        1,
        18,
        -2,
        8,
        -2,
        -2,
        6,
        -2,
        -2,
        -2
      ],
      "threshold": [
        -0.8298768401145935,
        -1.0461955070495605,
        -2.0,
        0.07814295217394829,
        -2.0,
        -2.0,
        -0.3864382654428482,
        -0.40192630887031555,
        -0.9117795825004578,
        -2.0,
        -0.18763338774442673,
        -2.0,
        0.11811957135796547,
        -2.0,
        -2.0,
        -0.6155872046947479,
        -0.5019547492265701,
        -2.0,
        -0.870422899723053,
        -2.0,
        -2.0,
        0.020427990704774857,
        -2.0,
        -2.0,
        -2.0
      ],
      "value": [
        [
          [
            0.5086206896551725,
            0.4913793103448273
          ]
        ],
        [
          [
            0.9727598566308242,
            0.02724014336917562
          ]
        ],
        [
          [
            0.0,
            1.0
          ]
        ],
        [
          [
            0.9861918604651162,
            0.013808139534883718
          ]
        ],
        [
          [
            0.0,
            1.0
          ]
        ],
        [
          [
            1.0,
            0.0
          ]
        ],
        [
          [
            0.3016938318951744,
            0.6983061681048259
          ]
        ],
        [
          [
            0.4791878172588833,
            0.520812182741117
          ]
        ],
        [
          [
            0.7212713936430318,
            0.27872860635696817
          ]
        ],
        [
          [
            0.0,
            1.0
          ]
        ],
        [
          [
            0.8613138686131387,
            0.13868613138686134
          ]
        ],
        [
          [
            1.0,
            0.0
          ]
        ],
        [
          [
            0.6507352941176472,
            0.3492647058823529
          ]
        ],
        [
          [
            0.0,
            1.0
          ]
        ],
        [
          [
            1.0,
            0.0
          ]
        ],
        [
          [
            0.30729166666666674,
            0.6927083333333336
          ]
        ],
        [
          [
            0.6082474226804123,
            0.39175257731958757
          ]
        ],
        [
          [
            1.0,
            0.0
          ]
        ],
        [
          [
            0.0,
            1.0
          ]
        ],
        [
          [
            0.0,
            1.0
          ]
        ],
        [
          [
            0.0,
            1.0
          ]
        ],
        [
          [
            0.08845577211394302,
            0.9115442278860569
          ]
        ],
        [
          [
            0.0,
            1.0
          ]
        ],
        [
          [
            1.0,
            0.0
          ]
        ],
        [
          [
            0.0,
            1.0
          ]
        ]
      ]
    },
    {
      "tree_index": 8,
      "max_depth": 8,
      "node_count": 31,
      "children_left": [
        1,
        2,
        3,
        4,
        -1,
        6,
        7,
        8,
        -1,
        -1,
        11,
        12,
        -1,
        -1,
        -1,
        -1,
        -1,
        18,
        19,
        -1,
        -1,
        22,
        -1,
        24,
        25,
        -1,
        -1,
        -1,
        29,
        -1,
        -1
      ],
      "children_right": [
        28,
        17,
        16,
        5,
        -1,
        15,
        10,
        9,
        -1,
        -1,
        14,
        13,
        -1,
        -1,
        -1,
        -1,
        -1,
        21,
        20,
        -1,
        -1,
        23,
        -1,
        27,
        26,
        -1,
        -1,
        -1,
        30,
        -1,
        -1
      ],
      "feature": [
        10,
        5,
        18,
        11,
        -2,
        15,
        16,
        14,
        -2,
        -2,
        10,
        17,
        -2,
        -2,
        -2,
        -2,
        -2,
        15,
        12,
        -2,
        -2,
        14,
        -2,
        18,
        14,
        -2,
        -2,
        -2,
        17,
        -2,
        -2
      ],
      "threshold": [
        -0.20014261454343796,
        -0.4678638428449631,
        0.1311129629611969,
        -0.9432350099086761,
        -2.0,
        1.1778143048286438,
        -0.276072233915329,
        -0.5442408621311188,
        -2.0,
        -2.0,
        -0.6333320736885071,
        0.7305589318275452,
        -2.0,
        -2.0,
        -2.0,
        -2.0,
        -2.0,
        -0.04546981118619442,
        -0.45262983441352844,
        -2.0,
        -2.0,
        -0.29511038959026337,
        -2.0,
        -0.5862117856740952,
        -0.2501237615942955,
        -2.0,
        -2.0,
        -2.0,
        -1.6397685408592224,
        -2.0,
        -2.0
      ],
      "value": [
        [
          [
            0.5086206896551724,
            0.49137931034482685
          ]
        ],
        [
          [
            0.7290874524714833,
            0.2709125475285172
          ]
        ],
        [
          [
            0.8613138686131389,
            0.1386861313868613
          ]
        ],
        [
          [
            0.9085659287776708,
            0.09143407122232913
          ]
        ],
        [
          [
            0.0,
            1.0
          ]
        ],
        [
          [
            0.9430569430569431,
            0.05694305694305693
          ]
        ],
        [
          [
            0.9520927887039841,
            0.04790721129601613
          ]
        ],
        [
          [
            0.9877656149388281,
            0.012234385061171924
          ]
        ],
        [
          [
            0.0,
            1.0
          ]
        ],
        [
          [
            1.0,
            0.0
          ]
        ],
        [
          [
            0.8232558139534883,
            0.17674418604651163
          ]
        ],
        [
          [
            0.9490616621983915,
            0.050938337801608585
          ]
        ],
        [
          [
            1.0,
            0.0
          ]
        ],
        [
          [
            0.0,
            1.0
          ]
        ],
        [
          [
            0.0,
            1.0
          ]
        ],
        [
          [
            0.0,
            1.0
          ]
        ],
        [
          [
            0.0,
            1.0
          ]
        ],
        [
          [
            0.4284232365145228,
            0.5715767634854773
          ]
        ],
        [
          [
            0.9030612244897961,
            0.09693877551020409
          ]
        ],
        [
          [
            1.0,
            0.0
          ]
        ],
        [
          [
            0.0,
            1.0
          ]
        ],
        [
          [
            0.10314685314685315,
            0.8968531468531468
          ]
        ],
        [
          [
            0.0,
            1.0
          ]
        ],
        [
          [
            0.3410404624277457,
            0.6589595375722543
          ]
        ],
        [
          [
            0.7564102564102564,
            0.24358974358974358
          ]
        ],
        [
          [
            1.0,
            0.0
          ]
        ],
        [
          [
            0.0,
            1.0
          ]
        ],
        [
          [
            0.0,
            1.0
          ]
        ],
        [
          [
            0.0,
            1.0
          ]
        ],
        [
          [
            0.0,
            1.0
          ]
        ],
        [
          [
            0.0,
            1.0
          ]
        ]
      ]
    },
    {
      "tree_index": 9,
      "max_depth": 6,
      "node_count": 33,
      "children_left": [
        1,
        2,
        3,
        -1,
        5,
        -1,
        7,
        -1,
        -1,
        10,
        11,
        12,
        13,
        -1,
        -1,
        16,
        -1,
        -1,
        19,
        -1,
        -1,
        22,
        23,
        -1,
        -1,
        -1,
        27,
        -1,
        29,
        30,
        -1,
        -1,
        -1
      ],
      "children_right": [
        26,
        9,
        4,
        -1,
        6,
        -1,
        8,
        -1,
        -1,
        21,
        18,
        15,
        14,
        -1,
        -1,
        17,
        -1,
        -1,
        20,
        -1,
        -1,
        25,
        24,
        -1,
        -1,
        -1,
        28,
        -1,
        32,
        31,
        -1,
        -1,
        -1
      ],
      "feature": [
        11,
        14,
        3,
        -2,
        13,
        -2,
        13,
        -2,
        -2,
        20,
        11,
        9,
        11,
        -2,
        -2,
        15,
        -2,
        -2,
        18,
        -2,
        -2,
        2,
        6,
        -2,
        -2,
        -2,
        21,
        -2,
        19,
        19,
        -2,
        -2,
        -2
      ],
      "threshold": [
        -0.43524934351444244,
        -0.4934604912996292,
        -0.9002284705638885,
        -2.0,
        -0.6336508989334106,
        -2.0,
        -0.5948341488838196,
        -2.0,
        -2.0,
        -0.5246279090642929,
        -0.6341641843318939,
        -0.67830890417099,
        -0.8937043845653534,
        -2.0,
        -2.0,
        0.30094117298722267,
        -2.0,
        -2.0,
        -0.9118920415639877,
        -2.0,
        -2.0,
        2.3501906394958496,
        0.11811957135796547,
        -2.0,
        -2.0,
        -2.0,
        -0.8467723727226257,
        -2.0,
        -1.1200526356697083,
        -1.215598225593567,
        -2.0,
        -2.0,
        -2.0
      ],
      "value": [
        [
          [
            0.5335917312661498,
            0.46640826873384966
          ]
        ],
        [
          [
            0.7951482479784369,
            0.2048517520215634
          ]
        ],
        [
          [
            0.9666471620830894,
            0.03335283791691046
          ]
        ],
        [
          [
            0.0,
            1.0
          ]
        ],
        [
          [
            0.9886295631358468,
            0.011370436864153202
          ]
        ],
        [
          [
            1.0,
            0.0
          ]
        ],
        [
          [
            0.9613034623217922,
            0.038696537678207736
          ]
        ],
        [
          [
            0.0,
            1.0
          ]
        ],
        [
          [
            1.0,
            0.0
          ]
        ],
        [
          [
            0.5623510722795871,
            0.43764892772041314
          ]
        ],
        [
          [
            0.7996987951807228,
            0.20030120481927707
          ]
        ],
        [
          [
            0.5709677419354839,
            0.4290322580645161
          ]
        ],
        [
          [
            0.8232558139534883,
            0.1767441860465116
          ]
        ],
        [
          [
            0.0,
            1.0
          ]
        ],
        [
          [
            1.0,
            0.0
          ]
        ],
        [
          [
            0.0,
            1.0
          ]
        ],
        [
          [
            0.0,
            1.0
          ]
        ],
        [
          [
            0.0,
            1.0
          ]
        ],
        [
          [
            1.0,
            0.0
          ]
        ],
        [
          [
            1.0,
            0.0
          ]
        ],
        [
          [
            1.0,
            0.0
          ]
        ],
        [
          [
            0.29747899159663865,
            0.7025210084033612
          ]
        ],
        [
          [
            0.12368972746331235,
            0.8763102725366877
          ]
        ],
        [
          [
            0.0,
            1.0
          ]
        ],
        [
          [
            1.0,
            0.0
          ]
        ],
        [
          [
            1.0,
            0.0
          ]
        ],
        [
          [
            0.0704057279236277,
            0.9295942720763725
          ]
        ],
        [
          [
            1.0,
            0.0
          ]
        ],
        [
          [
            0.03648732220160793,
            0.963512677798392
          ]
        ],
        [
          [
            0.4370370370370371,
            0.562962962962963
          ]
        ],
        [
          [
            0.0,
            1.0
          ]
        ],
        [
          [
            1.0,
            0.0
          ]
        ],
        [
          [
            0.0,
            1.0
          ]
        ]
      ]
    },
    {
      "tree_index": 10,
      "max_depth": 10,
      "node_count": 33,
      "children_left": [
        1,
        2,
        3,
        -1,
        5,
        6,
        -1,
        8,
        -1,
        10,
        11,
        -1,
        13,
        14,
        -1,
        -1,
        17,
        -1,
        -1,
        20,
        -1,
        -1,
        23,
        -1,
        -1,
        26,
        -1,
        -1,
        29,
        30,
        -1,
        -1,
        -1
      ],
      "children_right": [
        28,
        25,
        4,
        -1,
        22,
        7,
        -1,
        9,
        -1,
        19,
        12,
        -1,
        16,
        15,
        -1,
        -1,
        18,
        -1,
        -1,
        21,
        -1,
        -1,
        24,
        -1,
        -1,
        27,
        -1,
        -1,
        32,
        31,
        -1,
        -1,
        -1
      ],
      "feature": [
        18,
        6,
        7,
        -2,
        20,
        11,
        -2,
        21,
        -2,
        2,
        9,
        -2,
        4,
        12,
        -2,
        -2,
        3,
        -2,
        -2,
        21,
        -2,
        -2,
        11,
        -2,
        -2,
        14,
        -2,
        -2,
        13,
        12,
        -2,
        -2,
        -2
      ],
      "threshold": [
        -0.2575228437781334,
        -0.4680298864841461,
        -0.8151986598968506,
        -2.0,
        0.21413502842187881,
        -1.007822871208191,
        -2.0,
        -1.130359947681427,
        -2.0,
        0.3287114202976227,
        -0.9286816716194153,
        -2.0,
        -0.5580717027187347,
        -0.48999179899692535,
        -2.0,
        -2.0,
        -0.6081250905990601,
        -2.0,
        -2.0,
        -1.0524714589118958,
        -2.0,
        -2.0,
        -0.5335180088877678,
        -2.0,
        -2.0,
        0.8887421675026417,
        -2.0,
        -2.0,
        -0.7007262706756592,
        -0.4553770571947098,
        -2.0,
        -2.0,
        -2.0
      ],
      "value": [
        [
          [
            0.46392229417206304,
            0.5360777058279366
          ]
        ],
        [
          [
            0.7564102564102567,
            0.24358974358974367
          ]
        ],
        [
          [
            0.8324514991181656,
            0.16754850088183415
          ]
        ],
        [
          [
            0.0,
            1.0
          ]
        ],
        [
          [
            0.8613138686131387,
            0.13868613138686128
          ]
        ],
        [
          [
            0.892249527410208,
            0.10775047258979202
          ]
        ],
        [
          [
            0.0,
            1.0
          ]
        ],
        [
          [
            0.9085659287776708,
            0.09143407122232913
          ]
        ],
        [
          [
            1.0,
            0.0
          ]
        ],
        [
          [
            0.8324514991181656,
            0.16754850088183418
          ]
        ],
        [
          [
            0.9430569430569431,
            0.056943056943056944
          ]
        ],
        [
          [
            0.0,
            1.0
          ]
        ],
        [
          [
            0.9802699896157839,
            0.019730010384215988
          ]
        ],
        [
          [
            0.903061224489796,
            0.09693877551020406
          ]
        ],
        [
          [
            1.0,
            0.0
          ]
        ],
        [
          [
            0.0,
            1.0
          ]
        ],
        [
          [
            1.0,
            0.0
          ]
        ],
        [
          [
            1.0,
            0.0
          ]
        ],
        [
          [
            1.0,
            0.0
          ]
        ],
        [
          [
            0.0,
            1.0
          ]
        ],
        [
          [
            0.0,
            1.0
          ]
        ],
        [
          [
            0.0,
            1.0
          ]
        ],
        [
          [
            0.0,
            1.0
          ]
        ],
        [
          [
            0.0,
            1.0
          ]
        ],
        [
          [
            0.0,
            1.0
          ]
        ],
        [
          [
            0.1928104575163399,
            0.8071895424836603
          ]
        ],
        [
          [
            0.0,
            1.0
          ]
        ],
        [
          [
            1.0,
            0.0
          ]
        ],
        [
          [
            0.03371428571428572,
            0.9662857142857143
          ]
        ],
        [
          [
            0.2796208530805688,
            0.7203791469194313
          ]
        ],
        [
          [
            0.0,
            1.0
          ]
        ],
        [
          [
            1.0,
            0.0
          ]
        ],
        [
          [
            0.0,
            1.0
          ]
        ]
      ]
    },
    {
      "tree_index": 11,
      "max_depth": 5,
      "node_count": 25,
      "children_left": [
        1,
        2,
        -1,
        4,
        5,
        -1,
        7,
        -1,
        -1,
        10,
        11,
        -1,
        -1,
        -1,
        15,
        16,
        17,
        -1,
        -1,
        20,
        -1,
        -1,
        23,
        -1,
        -1
      ],
      "children_right": [
        14,
        3,
        -1,
        9,
        6,
        -1,
        8,
        -1,
        -1,
        13,
        12,
        -1,
        -1,
        -1,
        22,
        19,
        18,
        -1,
        -1,
        21,
        -1,
        -1,
        24,
        -1,
        -1
      ],
      "feature": [
        21,
        1,
        -2,
        16,
        1,
        -2,
        6,
        -2,
        -2,
        2,
        5,
        -2,
        -2,
        -2,
        8,
        0,
        0,
        -2,
        -2,
        13,
        -2,
        -2,
        11,
        -2,
        -2
      ],
      "threshold": [
        -0.8349573910236359,
        -0.7524981200695038,
        -2.0,
        -0.9579804241657257,
        0.06853882968425751,
        -2.0,
        -0.8486901819705963,
        -2.0,
        -2.0,
        -0.743496835231781,
        -0.2514014430344105,
        -2.0,
        -2.0,
        -2.0,
        -0.43348537385463715,
        -0.8829284012317657,
        -1.0233575701713562,
        -2.0,
        -2.0,
        -0.40447670221328735,
        -2.0,
        -2.0,
        -0.4657601863145828,
        -2.0,
        -2.0
      ],
      "value": [
        [
          [
            0.5416310845431256,
            0.458368915456874
          ]
        ],
        [
          [
            0.9520927887039841,
            0.047907211296016126
          ]
        ],
        [
          [
            0.0,
            1.0
          ]
        ],
        [
          [
            0.9613034623217922,
            0.03869653767820773
          ]
        ],
        [
          [
            0.8054607508532423,
            0.19453924914675766
          ]
        ],
        [
          [
            0.0,
            1.0
          ]
        ],
        [
          [
            1.0,
            0.0
          ]
        ],
        [
          [
            1.0,
            0.0
          ]
        ],
        [
          [
            1.0,
            0.0
          ]
        ],
        [
          [
            0.9886295631358468,
            0.0113704368641532
          ]
        ],
        [
          [
            0.9394904458598725,
            0.06050955414012738
          ]
        ],
        [
          [
            0.0,
            1.0
          ]
        ],
        [
          [
            1.0,
            0.0
          ]
        ],
        [
          [
            1.0,
            0.0
          ]
        ],
        [
          [
            0.24028137726767873,
            0.7597186227323214
          ]
        ],
        [
          [
            0.5170902716914987,
            0.4829097283085013
          ]
        ],
        [
          [
            0.8787234042553191,
            0.12127659574468083
          ]
        ],
        [
          [
            0.0,
            1.0
          ]
        ],
        [
          [
            1.0,
            0.0
          ]
        ],
        [
          [
            0.2637853949329359,
            0.736214605067064
          ]
        ],
        [
          [
            0.0,
            1.0
          ]
        ],
        [
          [
            1.0,
            0.0
          ]
        ],
        [
          [
            0.03782051282051283,
            0.9621794871794871
          ]
        ],
        [
          [
            1.0,
            0.0
          ]
        ],
        [
          [
            0.0,
            1.0
          ]
        ]
      ]
    },
    {
      "tree_index": 12,
      "max_depth": 9,
      "node_count": 31,
      "children_left": [
        1,
        2,
        3,
        -1,
        5,
        6,
        7,
        8,
        -1,
        10,
        -1,
        12,
        -1,
        -1,
        -1,
        16,
        -1,
        18,
        -1,
        -1,
        21,
        -1,
        23,
        -1,
        25,
        -1,
        -1,
        -1,
        29,
        -1,
        -1
      ],
      "children_right": [
        28,
        27,
        4,
        -1,
        20,
        15,
        14,
        9,
        -1,
        11,
        -1,
        13,
        -1,
        -1,
        -1,
        17,
        -1,
        19,
        -1,
        -1,
        22,
        -1,
        24,
        -1,
        26,
        -1,
        -1,
        -1,
        30,
        -1,
        -1
      ],
      "feature": [
        18,
        11,
        5,
        -2,
        1,
        2,
        14,
        11,
        -2,
        1,
        -2,
        15,
        -2,
        -2,
        -2,
        11,
        -2,
        11,
        -2,
        -2,
        16,
        -2,
        19,
        -2,
        11,
        -2,
        -2,
        -2,
        18,
        -2,
        -2
      ],
      "threshold": [
        0.05650609917938709,
        -0.09923388250172138,
        -0.815138041973114,
        -2.0,
        0.16743367165327072,
        0.25905775278806686,
        -0.38088034093379974,
        -0.9012330770492554,
        -2.0,
        -0.6521313786506653,
        -2.0,
        0.8464788496494293,
        -2.0,
        -2.0,
        -2.0,
        -0.920252799987793,
        -2.0,
        -0.8655710220336914,
        -2.0,
        -2.0,
        -0.18530608713626862,
        -2.0,
        -0.2422662079334259,
        -2.0,
        -0.39007746428251266,
        -2.0,
        -2.0,
        -2.0,
        0.06804525665938854,
        -2.0,
        -2.0
      ],
      "value": [
        [
          [
            0.5573047858942066,
            0.44269521410579293
          ]
        ],
        [
          [
            0.7996987951807232,
            0.2003012048192772
          ]
        ],
        [
          [
            0.838068181818182,
            0.16193181818181818
          ]
        ],
        [
          [
            0.0,
            1.0
          ]
        ],
        [
          [
            0.8534233365477341,
            0.1465766634522662
          ]
        ],
        [
          [
            0.7175675675675677,
            0.2824324324324325
          ]
        ],
        [
          [
            0.8407376362112323,
            0.15926236378876782
          ]
        ],
        [
          [
            0.9295644114921224,
            0.07043558850787766
          ]
        ],
        [
          [
            0.0,
            1.0
          ]
        ],
        [
          [
            0.9814090019569472,
            0.018590998043052833
          ]
        ],
        [
          [
            1.0,
            0.0
          ]
        ],
        [
          [
            0.903061224489796,
            0.09693877551020406
          ]
        ],
        [
          [
            1.0,
            0.0
          ]
        ],
        [
          [
            0.0,
            1.0
          ]
        ],
        [
          [
            0.0,
            1.0
          ]
        ],
        [
          [
            0.20557491289198604,
            0.7944250871080138
          ]
        ],
        [
          [
            1.0,
            0.0
          ]
        ],
        [
          [
            0.0,
            1.0
          ]
        ],
        [
          [
            0.0,
            1.0
          ]
        ],
        [
          [
            0.0,
            1.0
          ]
        ],
        [
          [
            0.976701410177805,
            0.023298589822194966
          ]
        ],
        [
          [
            1.0,
            0.0
          ]
        ],
        [
          [
            0.8613138686131387,
            0.1386861313868613
          ]
        ],
        [
          [
            1.0,
            0.0
          ]
        ],
        [
          [
            0.0,
            1.0
          ]
        ],
        [
          [
            0.0,
            1.0
          ]
        ],
        [
          [
            0.0,
            1.0
          ]
        ],
        [
          [
            0.0,
            1.0
          ]
        ],
        [
          [
            0.0,
            1.0
          ]
        ],
        [
          [
            0.0,
            1.0
          ]
        ],
        [
          [
            0.0,
            1.0
          ]
        ]
      ]
    },
    {
      "tree_index": 13,
      "max_depth": 10,
      "node_count": 39,
      "children_left": [
        1,
        2,
        -1,
        4,
        -1,
        6,
        7,
        8,
        9,
        10,
        -1,
        12,
        -1,
        14,
        -1,
        -1,
        17,
        -1,
        -1,
        20,
        21,
        -1,
        -1,
        -1,
        25,
        26,
        -1,
        -1,
        29,
        -1,
        -1,
        -1,
        33,
        34,
        -1,
        36,
        -1,
        -1,
        -1
      ],
      "children_right": [
        32,
        3,
        -1,
        5,
        -1,
        31,
        24,
        19,
        16,
        11,
        -1,
        13,
        -1,
        15,
        -1,
        -1,
        18,
        -1,
        -1,
        23,
        22,
        -1,
        -1,
        -1,
        28,
        27,
        -1,
        -1,
        30,
        -1,
        -1,
        -1,
        38,
        35,
        -1,
        37,
        -1,
        -1,
        -1
      ],
      "feature": [
        8,
        2,
        -2,
        12,
        -2,
        14,
        18,
        15,
        9,
        7,
        -2,
        9,
        -2,
        14,
        -2,
        -2,
        15,
        -2,
        -2,
        15,
        15,
        -2,
        -2,
        -2,
        12,
        12,
        -2,
        -2,
        13,
        -2,
        -2,
        -2,
        16,
        0,
        -2,
        17,
        -2,
        -2,
        -2
      ],
      "threshold": [
        -0.29885055124759674,
        -0.7062714397907257,
        -2.0,
        -0.9265223145484924,
        -2.0,
        -0.2829549014568329,
        -0.04205819219350815,
        1.0760818719863892,
        -0.4712699055671692,
        -0.5219196081161499,
        -2.0,
        -0.6855311989784241,
        -2.0,
        -0.4347279667854309,
        -2.0,
        -2.0,
        0.40343283116817474,
        -2.0,
        -2.0,
        1.860549807548523,
        1.4227097630500793,
        -2.0,
        -2.0,
        -2.0,
        -0.4380696713924408,
        -0.8449304103851318,
        -2.0,
        -2.0,
        -0.4509015455842018,
        -2.0,
        -2.0,
        -2.0,
        -0.45142796635627747,
        0.3292136639356613,
        -2.0,
        0.19146299362182617,
        -2.0,
        -2.0,
        -2.0
      ],
      "value": [
        [
          [
            0.5000000000000001,
            0.49999999999999956
          ]
        ],
        [
          [
            0.6981068289384724,
            0.3018931710615282
          ]
        ],
        [
          [
            0.0,
            1.0
          ]
        ],
        [
          [
            0.7725402169846615,
            0.2274597830153385
          ]
        ],
        [
          [
            0.0,
            1.0
          ]
        ],
        [
          [
            0.795148247978437,
            0.20485175202156336
          ]
        ],
        [
          [
            0.8445807770961147,
            0.1554192229038855
          ]
        ],
        [
          [
            0.9003338102050549,
            0.09966618979494514
          ]
        ],
        [
          [
            0.9322120285423039,
            0.0677879714576962
          ]
        ],
        [
          [
            0.9666471620830895,
            0.03335283791691047
          ]
        ],
        [
          [
            1.0,
            0.0
          ]
        ],
        [
          [
            0.8922495274102081,
            0.10775047258979208
          ]
        ],
        [
          [
            0.0,
            1.0
          ]
        ],
        [
          [
            0.9613034623217924,
            0.03869653767820774
          ]
        ],
        [
          [
            0.0,
            1.0
          ]
        ],
        [
          [
            1.0,
            0.0
          ]
        ],
        [
          [
            0.699604743083004,
            0.30039525691699603
          ]
        ],
        [
          [
            0.0,
            1.0
          ]
        ],
        [
          [
            1.0,
            0.0
          ]
        ],
        [
          [
            0.437037037037037,
            0.5629629629629629
          ]
        ],
        [
          [
            0.0,
            1.0
          ]
        ],
        [
          [
            0.0,
            1.0
          ]
        ],
        [
          [
            0.0,
            1.0
          ]
        ],
        [
          [
            1.0,
            0.0
          ]
        ],
        [
          [
            0.5086206896551723,
            0.49137931034482735
          ]
        ],
        [
          [
            0.0,
            1.0
          ]
        ],
        [
          [
            0.0,
            1.0
          ]
        ],
        [
          [
            0.0,
            1.0
          ]
        ],
        [
          [
            0.9030612244897961,
            0.09693877551020408
          ]
        ],
        [
          [
            1.0,
            0.0
          ]
        ],
        [
          [
            0.0,
            1.0
          ]
        ],
        [
          [
            0.0,
            1.0
          ]
        ],
        [
          [
            0.11598951507208392,
            0.8840104849279162
          ]
        ],
        [
          [
            0.41745283018867935,
            0.5825471698113209
          ]
        ],
        [
          [
            0.0,
            1.0
          ]
        ],
        [
          [
            0.9030612244897961,
            0.09693877551020408
          ]
        ],
        [
          [
            1.0,
            0.0
          ]
        ],
        [
          [
            0.0,
            1.0
          ]
        ],
        [
          [
            0.0,
            1.0
          ]
        ]
      ]
    },
    {
      "tree_index": 14,
      "max_depth": 7,
      "node_count": 41,
      "children_left": [
        1,
        2,
        3,
        4,
        -1,
        -1,
        7,
        -1,
        9,
        -1,
        11,
        -1,
        -1,
        14,
        15,
        16,
        -1,
        18,
        19,
        -1,
        -1,
        -1,
        -1,
        24,
        -1,
        26,
        -1,
        28,
        29,
        -1,
        -1,
        -1,
        33,
        -1,
        35,
        36,
        37,
        -1,
        -1,
        -1,
        -1
      ],
      "children_right": [
        32,
        13,
        6,
        5,
        -1,
        -1,
        8,
        -1,
        10,
        -1,
        12,
        -1,
        -1,
        23,
        22,
        17,
        -1,
        21,
        20,
        -1,
        -1,
        -1,
        -1,
        25,
        -1,
        27,
        -1,
        31,
        30,
        -1,
        -1,
        -1,
        34,
        -1,
        40,
        39,
        38,
        -1,
        -1,
        -1,
        -1
      ],
      "feature": [
        8,
        14,
        16,
        2,
        -2,
        -2,
        16,
        -2,
        7,
        -2,
        9,
        -2,
        -2,
        0,
        12,
        7,
        -2,
        9,
        15,
        -2,
        -2,
        -2,
        -2,
        1,
        -2,
        5,
        -2,
        20,
        19,
        -2,
        -2,
        -2,
        12,
        -2,
        19,
        1,
        8,
        -2,
        -2,
        -2,
        -2
      ],
      "threshold": [
        -0.29885055124759674,
        -0.4793737828731537,
        -1.7229740023612976,
        1.9468038082122803,
        -2.0,
        -2.0,
        -0.2589786797761917,
        -2.0,
        -0.6096437871456146,
        -2.0,
        -0.8179398775100708,
        -2.0,
        -2.0,
        0.4839523136615753,
        -0.3364231586456299,
        -0.2904108315706253,
        -2.0,
        -0.67830890417099,
        0.49247586727142334,
        -2.0,
        -2.0,
        -2.0,
        -2.0,
        0.2444358468055725,
        -2.0,
        -0.614248514175415,
        -2.0,
        1.288339078426361,
        -0.606615424156189,
        -2.0,
        -2.0,
        -2.0,
        -0.3449394851922989,
        -2.0,
        -1.1711706519126892,
        0.21790748182684183,
        0.19664565473794937,
        -2.0,
        -2.0,
        -2.0,
        -2.0
      ],
      "value": [
        [
          [
            0.5649458784346376,
            0.43505412156536166
          ]
        ],
        [
          [
            0.7823990355635928,
            0.21760096443640753
          ]
        ],
        [
          [
            0.9430569430569431,
            0.05694305694305693
          ]
        ],
        [
          [
            0.6742857142857143,
            0.3257142857142857
          ]
        ],
        [
          [
            0.0,
            1.0
          ]
        ],
        [
          [
            1.0,
            0.0
          ]
        ],
        [
          [
            0.9688013136288998,
            0.031198686371100154
          ]
        ],
        [
          [
            1.0,
            0.0
          ]
        ],
        [
          [
            0.8380681818181819,
            0.1619318181818182
          ]
        ],
        [
          [
            1.0,
            0.0
          ]
        ],
        [
          [
            0.0,
            1.0
          ]
        ],
        [
          [
            0.0,
            1.0
          ]
        ],
        [
          [
            0.0,
            1.0
          ]
        ],
        [
          [
            0.5379939209726442,
            0.46200607902735547
          ]
        ],
        [
          [
            0.18700475435816163,
            0.8129952456418382
          ]
        ],
        [
          [
            0.10314685314685315,
            0.8968531468531468
          ]
        ],
        [
          [
            0.0,
            1.0
          ]
        ],
        [
          [
            0.3410404624277457,
            0.6589595375722543
          ]
        ],
        [
          [
            0.7564102564102564,
            0.24358974358974358
          ]
        ],
        [
          [
            0.0,
            1.0
          ]
        ],
        [
          [
            1.0,
            0.0
          ]
        ],
        [
          [
            0.0,
            1.0
          ]
        ],
        [
          [
            1.0,
            0.0
          ]
        ],
        [
          [
            0.8613138686131385,
            0.13868613138686128
          ]
        ],
        [
          [
            0.0,
            1.0
          ]
        ],
        [
          [
            0.9119010819165377,
            0.08809891808346212
          ]
        ],
        [
          [
            0.0,
            1.0
          ]
        ],
        [
          [
            0.9394904458598727,
            0.06050955414012738
          ]
        ],
        [
          [
            0.9688013136288998,
            0.03119868637110016
          ]
        ],
        [
          [
            1.0,
            0.0
          ]
        ],
        [
          [
            0.0,
            1.0
          ]
        ],
        [
          [
            0.0,
            1.0
          ]
        ],
        [
          [
            0.0794078061911171,
            0.9205921938088827
          ]
        ],
        [
          [
            1.0,
            0.0
          ]
        ],
        [
          [
            0.041345480028030845,
            0.9586545199719692
          ]
        ],
        [
          [
            0.3831168831168831,
            0.6168831168831168
          ]
        ],
        [
          [
            0.0,
            1.0
          ]
        ],
        [
          [
            0.0,
            1.0
          ]
        ],
        [
          [
            0.0,
            1.0
          ]
        ],
        [
          [
            1.0,
            0.0
          ]
        ],
        [
          [
            0.0,
            1.0
          ]
        ]
      ]
    },
    {
      "tree_index": 15,
      "max_depth": 6,
      "node_count": 31,
      "children_left": [
        1,
        2,
        3,
        -1,
        5,
        -1,
        -1,
        8,
        9,
        10,
        -1,
        12,
        -1,
        -1,
        -1,
        -1,
        17,
        18,
        19,
        20,
        -1,
        -1,
        23,
        -1,
        25,
        -1,
        -1,
        -1,
        29,
        -1,
        -1
      ],
      "children_right": [
        16,
        7,
        4,
        -1,
        6,
        -1,
        -1,
        15,
        14,
        11,
        -1,
        13,
        -1,
        -1,
        -1,
        -1,
        28,
        27,
        22,
        21,
        -1,
        -1,
        24,
        -1,
        26,
        -1,
        -1,
        -1,
        30,
        -1,
        -1
      ],
      "feature": [
        7,
        0,
        17,
        -2,
        11,
        -2,
        -2,
        19,
        17,
        5,
        -2,
        2,
        -2,
        -2,
        -2,
        -2,
        9,
        19,
        17,
        15,
        -2,
        -2,
        20,
        -2,
        3,
        -2,
        -2,
        -2,
        1,
        -2,
        -2
      ],
      "threshold": [
        -0.490774929523468,
        -0.4570702612400055,
        0.785430520772934,
        -2.0,
        -0.7308478355407715,
        -2.0,
        -2.0,
        -0.5593418180942535,
        0.5642967969179153,
        -0.8135807812213898,
        -2.0,
        -0.4764551306143403,
        -2.0,
        -2.0,
        -2.0,
        -2.0,
        -0.15108168125152588,
        -0.2014598399400711,
        -0.4995150566101074,
        -0.001544814556837082,
        -2.0,
        -2.0,
        0.7912797778844833,
        -2.0,
        0.0038554221391677856,
        -2.0,
        -2.0,
        -2.0,
        -0.9767541587352753,
        -2.0,
        -2.0
      ],
      "value": [
        [
          [
            0.49122412241224145,
            0.5087758775877584
          ]
        ],
        [
          [
            0.8139741878059635,
            0.1860258121940365
          ]
        ],
        [
          [
            0.9824236817761332,
            0.017576318223866787
          ]
        ],
        [
          [
            1.0,
            0.0
          ]
        ],
        [
          [
            0.9030612244897961,
            0.09693877551020408
          ]
        ],
        [
          [
            0.0,
            1.0
          ]
        ],
        [
          [
            1.0,
            0.0
          ]
        ],
        [
          [
            0.6578044596912521,
            0.34219554030874794
          ]
        ],
        [
          [
            0.8706015891032918,
            0.12939841089670828
          ]
        ],
        [
          [
            0.9527950310559006,
            0.04720496894409938
          ]
        ],
        [
          [
            0.0,
            1.0
          ]
        ],
        [
          [
            0.9758269720101781,
            0.02417302798982188
          ]
        ],
        [
          [
            0.0,
            1.0
          ]
        ],
        [
          [
            1.0,
            0.0
          ]
        ],
        [
          [
            0.0,
            1.0
          ]
        ],
        [
          [
            0.0,
            1.0
          ]
        ],
        [
          [
            0.161128812016386,
            0.838871187983614
          ]
        ],
        [
          [
            0.35400000000000004,
            0.6460000000000002
          ]
        ],
        [
          [
            0.5890183028286189,
            0.410981697171381
          ]
        ],
        [
          [
            0.9394904458598727,
            0.060509554140127396
          ]
        ],
        [
          [
            1.0,
            0.0
          ]
        ],
        [
          [
            0.0,
            1.0
          ]
        ],
        [
          [
            0.20557491289198604,
            0.7944250871080138
          ]
        ],
        [
          [
            0.0,
            1.0
          ]
        ],
        [
          [
            0.7564102564102564,
            0.24358974358974358
          ]
        ],
        [
          [
            0.0,
            1.0
          ]
        ],
        [
          [
            1.0,
            0.0
          ]
        ],
        [
          [
            0.0,
            1.0
          ]
        ],
        [
          [
            0.0,
            1.0
          ]
        ],
        [
          [
            0.0,
            1.0
          ]
        ],
        [
          [
            0.0,
            1.0
          ]
        ]
      ]
    },
    {
      "tree_index": 16,
      "max_depth": 8,
      "node_count": 33,
      "children_left": [
        1,
        2,
        -1,
        4,
        5,
        6,
        -1,
        -1,
        -1,
        -1,
        11,
        12,
        13,
        14,
        -1,
        16,
        -1,
        18,
        19,
        -1,
        -1,
        22,
        -1,
        -1,
        -1,
        -1,
        27,
        28,
        -1,
        -1,
        31,
        -1,
        -1
      ],
      "children_right": [
        10,
        3,
        -1,
        9,
        8,
        7,
        -1,
        -1,
        -1,
        -1,
        26,
        25,
        24,
        15,
        -1,
        17,
        -1,
        21,
        20,
        -1,
        -1,
        23,
        -1,
        -1,
        -1,
        -1,
        30,
        29,
        -1,
        -1,
        32,
        -1,
        -1
      ],
      "feature": [
        15,
        18,
        -2,
        8,
        16,
        10,
        -2,
        -2,
        -2,
        -2,
        7,
        16,
        20,
        11,
        -2,
        2,
        -2,
        5,
        8,
        -2,
        -2,
        2,
        -2,
        -2,
        -2,
        -2,
        6,
        7,
        -2,
        -2,
        17,
        -2,
        -2
      ],
      "threshold": [
        0.4796779751777649,
        -1.2456429600715637,
        -2.0,
        -0.5728749632835388,
        0.050922691822052,
        -0.8387477397918701,
        -2.0,
        -2.0,
        -2.0,
        -2.0,
        -0.5219196081161499,
        0.580342561006546,
        0.6575682014226913,
        -0.9432350099086761,
        -2.0,
        -0.7890690863132477,
        -2.0,
        -0.7123573422431946,
        -0.8881907165050507,
        -2.0,
        -2.0,
        -0.5362987518310547,
        -2.0,
        -2.0,
        -2.0,
        -2.0,
        -0.33833590149879456,
        -0.46897363662719727,
        -2.0,
        -2.0,
        -0.7839026749134064,
        -2.0,
        -2.0
      ],
      "value": [
        [
          [
            0.4544817927170871,
            0.545518207282913
          ]
        ],
        [
          [
            0.08368794326241143,
            0.9163120567375889
          ]
        ],
        [
          [
            1.0,
            0.0
          ]
        ],
        [
          [
            0.05739299610894943,
            0.9426070038910507
          ]
        ],
        [
          [
            0.4701195219123506,
            0.5298804780876494
          ]
        ],
        [
          [
            0.0,
            1.0
          ]
        ],
        [
          [
            0.0,
            1.0
          ]
        ],
        [
          [
            0.0,
            1.0
          ]
        ],
        [
          [
            1.0,
            0.0
          ]
        ],
        [
          [
            0.0,
            1.0
          ]
        ],
        [
          [
            0.8160442600276625,
            0.18395573997233747
          ]
        ],
        [
          [
            0.8876947877485223,
            0.11230521225147769
          ]
        ],
        [
          [
            0.9157427937915742,
            0.0842572062084257
          ]
        ],
        [
          [
            0.9456210646823126,
            0.054378935317687456
          ]
        ],
        [
          [
            0.0,
            1.0
          ]
        ],
        [
          [
            0.9666471620830897,
            0.033352837916910474
          ]
        ],
        [
          [
            0.0,
            1.0
          ]
        ],
        [
          [
            0.9886295631358466,
            0.0113704368641532
          ]
        ],
        [
          [
            0.9394904458598725,
            0.06050955414012738
          ]
        ],
        [
          [
            1.0,
            0.0
          ]
        ],
        [
          [
            0.0,
            1.0
          ]
        ],
        [
          [
            1.0,
            0.0
          ]
        ],
        [
          [
            1.0,
            0.0
          ]
        ],
        [
          [
            1.0,
            0.0
          ]
        ],
        [
          [
            0.0,
            1.0
          ]
        ],
        [
          [
            0.0,
            1.0
          ]
        ],
        [
          [
            0.3831168831168831,
            0.6168831168831168
          ]
        ],
        [
          [
            0.0,
            1.0
          ]
        ],
        [
          [
            0.0,
            1.0
          ]
        ],
        [
          [
            0.0,
            1.0
          ]
        ],
        [
          [
            0.7564102564102564,
            0.24358974358974358
          ]
        ],
        [
          [
            1.0,
            0.0
          ]
        ],
        [
          [
            0.0,
            1.0
          ]
        ]
      ]
    },
    {
      "tree_index": 17,
      "max_depth": 7,
      "node_count": 27,
      "children_left": [
        1,
        2,
        3,
        4,
        -1,
        6,
        -1,
        -1,
        9,
        10,
        -1,
        12,
        -1,
        14,
        -1,
        -1,
        -1,
        -1,
        19,
        20,
        -1,
        -1,
        23,
        24,
        -1,
        -1,
        -1
      ],
      "children_right": [
        18,
        17,
        8,
        5,
        -1,
        7,
        -1,
        -1,
        16,
        11,
        -1,
        13,
        -1,
        15,
        -1,
        -1,
        -1,
        -1,
        22,
        21,
        -1,
        -1,
        26,
        25,
        -1,
        -1,
        -1
      ],
      "feature": [
        5,
        14,
        19,
        4,
        -2,
        9,
        -2,
        -2,
        14,
        11,
        -2,
        14,
        -2,
        15,
        -2,
        -2,
        -2,
        -2,
        21,
        0,
        -2,
        -2,
        16,
        20,
        -2,
        -2,
        -2
      ],
      "threshold": [
        -0.519254207611084,
        -0.4252989590167999,
        -0.5955348908901215,
        -0.8298768401145935,
        -2.0,
        -0.9094222187995911,
        -2.0,
        -2.0,
        -0.46869513392448425,
        -0.9341213405132294,
        -2.0,
        -0.5328806042671204,
        -2.0,
        0.6242508590221405,
        -2.0,
        -2.0,
        -2.0,
        -2.0,
        -0.8269315659999847,
        0.9233975410461426,
        -2.0,
        -2.0,
        -0.6494861245155334,
        0.8590457141399384,
        -2.0,
        -2.0,
        -2.0
      ],
      "value": [
        [
          [
            0.4148884578079536,
            0.5851115421920464
          ]
        ],
        [
          [
            0.8014629049111808,
            0.1985370950888192
          ]
        ],
        [
          [
            0.8522222222222224,
            0.14777777777777779
          ]
        ],
        [
          [
            0.9789823008849559,
            0.02101769911504425
          ]
        ],
        [
          [
            1.0,
            0.0
          ]
        ],
        [
          [
            0.7564102564102564,
            0.24358974358974358
          ]
        ],
        [
          [
            1.0,
            0.0
          ]
        ],
        [
          [
            0.0,
            1.0
          ]
        ],
        [
          [
            0.7243303571428572,
            0.27566964285714285
          ]
        ],
        [
          [
            0.8505897771952817,
            0.1494102228047182
          ]
        ],
        [
          [
            0.0,
            1.0
          ]
        ],
        [
          [
            0.8951724137931033,
            0.10482758620689653
          ]
        ],
        [
          [
            0.0,
            1.0
          ]
        ],
        [
          [
            0.9715568862275449,
            0.028443113772455092
          ]
        ],
        [
          [
            0.0,
            1.0
          ]
        ],
        [
          [
            1.0,
            0.0
          ]
        ],
        [
          [
            0.0,
            1.0
          ]
        ],
        [
          [
            0.0,
            1.0
          ]
        ],
        [
          [
            0.08009049773755661,
            0.9199095022624435
          ]
        ],
        [
          [
            0.8613138686131387,
            0.1386861313868613
          ]
        ],
        [
          [
            1.0,
            0.0
          ]
        ],
        [
          [
            0.0,
            1.0
          ]
        ],
        [
          [
            0.02846116739025568,
            0.9715388326097443
          ]
        ],
        [
          [
            0.162534435261708,
            0.8374655647382921
          ]
        ],
        [
          [
            0.0,
            1.0
          ]
        ],
        [
          [
            1.0,
            0.0
          ]
        ],
        [
          [
            0.0,
            1.0
          ]
        ]
      ]
    },
    {
      "tree_index": 18,
      "max_depth": 6,
      "node_count": 23,
      "children_left": [
        1,
        2,
        3,
        -1,
        5,
        6,
        -1,
        8,
        -1,
        -1,
        11,
        -1,
        -1,
        14,
        -1,
        16,
        -1,
        -1,
        19,
        20,
        -1,
        -1,
        -1
      ],
      "children_right": [
        18,
        13,
        4,
        -1,
        10,
        7,
        -1,
        9,
        -1,
        -1,
        12,
        -1,
        -1,
        15,
        -1,
        17,
        -1,
        -1,
        22,
        21,
        -1,
        -1,
        -1
      ],
      "feature": [
        18,
        7,
        2,
        -2,
        5,
        7,
        -2,
        0,
        -2,
        -2,
        16,
        -2,
        -2,
        0,
        -2,
        15,
        -2,
        -2,
        10,
        8,
        -2,
        -2,
        -2
      ],
      "threshold": [
        -0.2611840069293976,
        -0.5354156196117401,
        -0.7384718656539917,
        -2.0,
        -0.6531805992126465,
        -0.6620706617832184,
        -2.0,
        0.36019874922931194,
        -2.0,
        -2.0,
        -1.8977426886558533,
        -2.0,
        -2.0,
        0.3292136639356613,
        -2.0,
        -0.04546981118619442,
        -2.0,
        -2.0,
        -0.6752536296844482,
        -0.6694717109203339,
        -2.0,
        -2.0,
        -2.0
      ],
      "value": [
        [
          [
            0.5000000000000001,
            0.49999999999999944
          ]
        ],
        [
          [
            0.8355625491738791,
            0.16443745082612116
          ]
        ],
        [
          [
            0.93011035207567,
            0.06988964792432997
          ]
        ],
        [
          [
            0.0,
            1.0
          ]
        ],
        [
          [
            0.9789823008849556,
            0.02101769911504424
          ]
        ],
        [
          [
            0.9394904458598725,
            0.06050955414012738
          ]
        ],
        [
          [
            1.0,
            0.0
          ]
        ],
        [
          [
            0.0,
            1.0
          ]
        ],
        [
          [
            0.0,
            1.0
          ]
        ],
        [
          [
            0.0,
            1.0
          ]
        ],
        [
          [
            1.0,
            0.0
          ]
        ],
        [
          [
            1.0,
            0.0
          ]
        ],
        [
          [
            1.0,
            0.0
          ]
        ],
        [
          [
            0.5539906103286386,
            0.4460093896713616
          ]
        ],
        [
          [
            0.0,
            1.0
          ]
        ],
        [
          [
            0.7884187082405347,
            0.2115812917594655
          ]
        ],
        [
          [
            1.0,
            0.0
          ]
        ],
        [
          [
            0.0,
            1.0
          ]
        ],
        [
          [
            0.06076210092687957,
            0.9392378990731206
          ]
        ],
        [
          [
            0.3831168831168832,
            0.6168831168831169
          ]
        ],
        [
          [
            0.0,
            1.0
          ]
        ],
        [
          [
            1.0,
            0.0
          ]
        ],
        [
          [
            0.0,
            1.0
          ]
        ]
      ]
    },
    {
      "tree_index": 19,
      "max_depth": 7,
      "node_count": 27,
      "children_left": [
        1,
        2,
        3,
        4,
        -1,
        6,
        7,
        -1,
        9,
        -1,
        -1,
        -1,
        -1,
        -1,
        15,
        -1,
        17,
        18,
        19,
        20,
        -1,
        -1,
        -1,
        24,
        -1,
        -1,
        -1
      ],
      "children_right": [
        14,
        13,
        12,
        5,
        -1,
        11,
        8,
        -1,
        10,
        -1,
        -1,
        -1,
        -1,
        -1,
        16,
        -1,
        26,
        23,
        22,
        21,
        -1,
        -1,
        -1,
        25,
        -1,
        -1,
        -1
      ],
      "feature": [
        14,
        19,
        17,
        7,
        -2,
        7,
        18,
        -2,
        4,
        -2,
        -2,
        -2,
        -2,
        -2,
        1,
        -2,
        13,
        19,
        2,
        14,
        -2,
        -2,
        -2,
        4,
        -2,
        -2,
        -2
      ],
      "threshold": [
        -0.4934604912996292,
        0.8162687122821808,
        1.4899421334266663,
        -0.8151986598968506,
        -2.0,
        -0.4886986166238785,
        -0.7336947619915009,
        -2.0,
        -0.5580717027187347,
        -2.0,
        -2.0,
        -2.0,
        -2.0,
        -2.0,
        0.24970316886901855,
        -2.0,
        0.024836760945618153,
        -0.2014598399400711,
        -0.5038464814424515,
        -0.33373527228832245,
        -2.0,
        -2.0,
        -2.0,
        -0.5580717027187347,
        -2.0,
        -2.0,
        -2.0
      ],
      "value": [
        [
          [
            0.4639222941720631,
            0.5360777058279367
          ]
        ],
        [
          [
            0.8787234042553189,
            0.1212765957446808
          ]
        ],
        [
          [
            0.9157427937915743,
            0.08425720620842571
          ]
        ],
        [
          [
            0.9287856071964018,
            0.07121439280359818
          ]
        ],
        [
          [
            0.0,
            1.0
          ]
        ],
        [
          [
            0.9560185185185184,
            0.04398148148148147
          ]
        ],
        [
          [
            0.9848966613672496,
            0.015103338632750395
          ]
        ],
        [
          [
            1.0,
            0.0
          ]
        ],
        [
          [
            0.9394904458598725,
            0.06050955414012738
          ]
        ],
        [
          [
            0.0,
            1.0
          ]
        ],
        [
          [
            1.0,
            0.0
          ]
        ],
        [
          [
            0.0,
            1.0
          ]
        ],
        [
          [
            0.0,
            1.0
          ]
        ],
        [
          [
            0.0,
            1.0
          ]
        ],
        [
          [
            0.2632120796156488,
            0.7367879203843516
          ]
        ],
        [
          [
            0.0,
            1.0
          ]
        ],
        [
          [
            0.6370431893687709,
            0.3629568106312293
          ]
        ],
        [
          [
            0.8346028291621328,
            0.16539717083786723
          ]
        ],
        [
          [
            0.9527950310559007,
            0.047204968944099375
          ]
        ],
        [
          [
            0.8613138686131387,
            0.1386861313868613
          ]
        ],
        [
          [
            0.0,
            1.0
          ]
        ],
        [
          [
            1.0,
            0.0
          ]
        ],
        [
          [
            1.0,
            0.0
          ]
        ],
        [
          [
            0.0,
            1.0
          ]
        ],
        [
          [
            0.0,
            1.0
          ]
        ],
        [
          [
            0.0,
            1.0
          ]
        ],
        [
          [
            0.0,
            1.0
          ]
        ]
      ]
    },
    {
      "tree_index": 20,
      "max_depth": 9,
      "node_count": 37,
      "children_left": [
        1,
        2,
        3,
        4,
        -1,
        6,
        -1,
        -1,
        9,
        -1,
        -1,
        12,
        13,
        14,
        -1,
        16,
        17,
        18,
        19,
        -1,
        -1,
        -1,
        -1,
        24,
        -1,
        -1,
        27,
        -1,
        -1,
        30,
        -1,
        -1,
        33,
        34,
        -1,
        -1,
        -1
      ],
      "children_right": [
        32,
        11,
        8,
        5,
        -1,
        7,
        -1,
        -1,
        10,
        -1,
        -1,
        29,
        26,
        15,
        -1,
        23,
        22,
        21,
        20,
        -1,
        -1,
        -1,
        -1,
        25,
        -1,
        -1,
        28,
        -1,
        -1,
        31,
        -1,
        -1,
        36,
        35,
        -1,
        -1,
        -1
      ],
      "feature": [
        13,
        15,
        17,
        19,
        -2,
        7,
        -2,
        -2,
        7,
        -2,
        -2,
        0,
        20,
        12,
        -2,
        5,
        18,
        3,
        10,
        -2,
        -2,
        -2,
        -2,
        4,
        -2,
        -2,
        17,
        -2,
        -2,
        5,
        -2,
        -2,
        7,
        7,
        -2,
        -2,
        -2
      ],
      "threshold": [
        -0.19998996704816818,
        0.49247586727142334,
        -0.5086163319647312,
        -0.09493916481733322,
        -2.0,
        -0.1004282757639885,
        -2.0,
        -2.0,
        -0.541125476360321,
        -2.0,
        -2.0,
        0.869260847568512,
        -0.3335971310734749,
        -0.7998763024806976,
        -2.0,
        -0.2482868880033493,
        -0.10248205997049809,
        -0.6454760134220123,
        -0.9207276999950409,
        -2.0,
        -2.0,
        -2.0,
        -2.0,
        -0.1503640040755272,
        -2.0,
        -2.0,
        0.6225540786981583,
        -2.0,
        -2.0,
        -0.7839924097061157,
        -2.0,
        -2.0,
        -0.22708330303430557,
        -0.27587664127349854,
        -2.0,
        -2.0,
        -2.0
      ],
      "value": [
        [
          [
            0.4822888283378748,
            0.5177111716621249
          ]
        ],
        [
          [
            0.6722005208333337,
            0.3277994791666668
          ]
        ],
        [
          [
            0.26378539493293585,
            0.736214605067064
          ]
        ],
        [
          [
            0.699604743083004,
            0.30039525691699603
          ]
        ],
        [
          [
            1.0,
            0.0
          ]
        ],
        [
          [
            0.0,
            1.0
          ]
        ],
        [
          [
            0.0,
